svm_type c_svc
kernel_type rbf
gamma 0.0625
nr_class 10
total_sv 20
rho 0 0 0 0 0 0 0 0 0 0 0 0 0 0 0 0 0 0 0 0 0 0 0 0 0 0 0 0 0 0 0 0 0 0 0 0 0 0 0 0 0 0 0 0 0
label 0 1 2 3 4 5 6 7 8 9
nr_sv 2 2 2 2 2 2 2 2 2 2
SV
0 0.05978921571127865 0.1025534418268557 0 0.1178170460807265 0.1811325498149457 0.00527520013007232 0.7148599796063385 0.1811325498149457 1:4 2:2 3:2 4:2 5:2 6:2 7:2 8:2 9:2 10:4 11:8 12:2 13:2 14:2 15:2 16:8 
1 1 1 1 1 1 1 1 1 1:4 2:2 3:2 4:2 5:2 6:2 7:2 8:2 9:2 10:4 11:8 12:2 13:2 14:2 15:2 16:8 
-0 0.004652463795761715 0 0 0 0.00103436643188358 0.001505702887151478 0 0 1:1 2:3 3:1 4:1 5:2 6:1 7:1 8:1 9:1 10:5 11:3 12:2 13:10 14:1 15:1 
-1 1 1 1 1 1 1 1 1 1:1 2:3 3:1 4:1 5:2 6:1 7:1 8:1 9:1 10:5 11:3 12:2 13:10 14:1 15:1 
-0.05978921571127865 -0.004652463795761715 0.4015511346553596 0.001706527114004756 0.287216927363676 0.2451930531858213 0.1356318905115224 0.06829373108386864 0.1811325498149457 1:4 2:2 3:1 4:1 5:2 6:1 7:1 8:1 9:1 10:6 11:4 12:3 13:3 14:3 15:3 16:4 
-1 -1 1 1 1 1 1 1 1 1:4 2:2 3:1 4:1 5:2 6:1 7:1 8:1 9:1 10:6 11:4 12:3 13:3 14:3 15:3 16:4 
-0.1025534418268557 -0 -0.4015511346553596 0.0008053811361155282 0.4015511346553596 0.1356318905115224 0.06829373108386864 0.156517640415225 0.5819767297679643 1:4 2:2 3:1 4:1 5:4 6:1 7:1 8:1 9:2 10:4 11:3 12:2 13:3 14:3 15:3 16:7 
-1 -1 -1 1 1 1 1 1 1 1:4 2:2 3:1 4:1 5:4 6:1 7:1 8:1 9:2 10:4 11:3 12:2 13:3 14:3 15:3 16:7 
-0 -0 -0.001706527114004756 -0.0008053811361155282 0 0.002192286769681464 0.001172252145247671 0 0.0008053811361155282 1:1 2:2 3:2 4:2 5:3 6:2 7:6 8:1 9:1 10:3 11:3 12:2 13:3 14:3 15:10 16:2 
-1 -1 -1 -1 1 1 1 1 1 1:1 2:2 3:2 4:2 5:3 6:2 7:6 8:1 9:1 10:3 11:3 12:2 13:3 14:3 15:10 16:2 
-0.1178170460807265 -0 -0.287216927363676 -0.4015511346553596 -0 0.4807191046182052 0.1025534418268557 0.4807191046182052 0.1811325498149457 1:6 2:1 3:1 4:1 5:5 6:1 7:1 8:1 9:2 10:4 11:6 12:3 13:3 14:3 15:3 16:5 
-1 -1 -1 -1 -1 1 1 1 1 1:6 2:1 3:1 4:1 5:5 6:1 7:1 8:1 9:2 10:4 11:6 12:3 13:3 14:3 15:3 16:5 
-0.1811325498149457 -0.00103436643188358 -0.2451930531858213 -0.1356318905115224 -0.002192286769681464 -0.4807191046182052 0.04595610467492119 0.5819767297679643 0.2103225179058985 1:3 2:1 3:1 4:1 5:4 6:3 7:2 8:2 9:2 10:4 11:7 12:3 13:3 14:3 15:3 16:4 
-1 -1 -1 -1 -1 -1 1 1 1 1:3 2:1 3:1 4:1 5:4 6:3 7:2 8:2 9:2 10:4 11:7 12:3 13:3 14:3 15:3 16:4 
-0.00527520013007232 -0.001505702887151478 -0.1356318905115224 -0.06829373108386864 -0.001172252145247671 -0.1025534418268557 -0.04595610467492119 0.007693837398902223 0.05978921571127865 1:6 2:2 3:1 4:1 5:2 6:1 7:1 8:1 9:1 10:1 11:3 12:3 13:3 14:3 15:3 16:2 
-1 -1 -1 -1 -1 -1 -1 1 1 1:6 2:2 3:1 4:1 5:2 6:1 7:1 8:1 9:1 10:1 11:3 12:3 13:3 14:3 15:3 16:2 
-0.7148599796063385 -0 -0.06829373108386864 -0.156517640415225 -0 -0.4807191046182052 -0.5819767297679643 -0.007693837398902223 0.2103225179058985 1:4 2:2 3:2 4:2 5:5 6:2 7:2 8:2 9:2 10:4 11:8 12:3 13:3 14:3 15:3 16:7 
-1 -1 -1 -1 -1 -1 -1 -1 1 1:4 2:2 3:2 4:2 5:5 6:2 7:2 8:2 9:2 10:4 11:8 12:3 13:3 14:3 15:3 16:7 
-0.1811325498149457 -0 -0.1811325498149457 -0.5819767297679643 -0.0008053811361155282 -0.1811325498149457 -0.2103225179058985 -0.05978921571127865 -0.2103225179058985 1:4 2:2 3:2 4:2 5:3 6:4 7:1 8:1 9:1 10:3 11:4 12:3 13:3 14:3 15:3 16:7 
-1 -1 -1 -1 -1 -1 -1 -1 -1 1:4 2:2 3:2 4:2 5:3 6:4 7:1 8:1 9:1 10:3 11:4 12:3 13:3 14:3 15:3 16:7 
